digraph Tree {
node [shape=box, style="filled, rounded", color="black", fontname="helvetica"] ;
edge [fontname="helvetica"] ;
0 [label="commutelowerthan5 <= 0.5\ngini = 0.639\nsamples = 297\nvalue = [165, 21, 29, 2, 47, 33]\nclass = regcar", fillcolor="#f3c4a2"] ;
1 [label="age <= 54.5\ngini = 0.703\nsamples = 174\nvalue = [83, 16, 22, 1, 29, 23]\nclass = regcar", fillcolor="#f5d0b5"] ;
0 -> 1 [labeldistance=2.5, labelangle=45, headlabel="True"] ;
2 [label="age <= 48.5\ngini = 0.691\nsamples = 148\nvalue = [73, 15, 15, 1, 25, 19]\nclass = regcar", fillcolor="#f5ceb2"] ;
1 -> 2 ;
3 [label="age <= 45.5\ngini = 0.718\nsamples = 124\nvalue = [56, 13, 14, 1, 24, 16]\nclass = regcar", fillcolor="#f7d7c0"] ;
2 -> 3 ;
4 [label="age <= 34.5\ngini = 0.7\nsamples = 113\nvalue = [54, 13, 12, 0, 20, 14]\nclass = regcar", fillcolor="#f5d1b7"] ;
3 -> 4 ;
5 [label="age <= 29.5\ngini = 0.702\nsamples = 65\nvalue = [31, 6, 10, 0, 8, 10]\nclass = regcar", fillcolor="#f5cfb3"] ;
4 -> 5 ;
6 [label="age <= 21.5\ngini = 0.668\nsamples = 50\nvalue = [26, 4, 5, 0, 8, 7]\nclass = regcar", fillcolor="#f4c9aa"] ;
5 -> 6 ;
7 [label="age <= 20.5\ngini = 0.71\nsamples = 18\nvalue = [8, 3, 1, 0, 4, 2]\nclass = regcar", fillcolor="#f8dbc6"] ;
6 -> 7 ;
8 [label="age <= 18.5\ngini = 0.68\nsamples = 10\nvalue = [5, 2, 1, 0, 1, 1]\nclass = regcar", fillcolor="#f5d0b5"] ;
7 -> 8 ;
9 [label="gini = 0.667\nsamples = 3\nvalue = [1, 1, 0, 0, 1, 0]\nclass = regcar", fillcolor="#ffffff"] ;
8 -> 9 ;
10 [label="age <= 19.5\ngini = 0.612\nsamples = 7\nvalue = [4, 1, 1, 0, 0, 1]\nclass = regcar", fillcolor="#f2c09c"] ;
8 -> 10 ;
11 [label="gini = 0.5\nsamples = 2\nvalue = [1, 0, 0, 0, 0, 1]\nclass = regcar", fillcolor="#ffffff"] ;
10 -> 11 ;
12 [label="gini = 0.56\nsamples = 5\nvalue = [3, 1, 1, 0, 0, 0]\nclass = regcar", fillcolor="#f2c09c"] ;
10 -> 12 ;
13 [label="gini = 0.688\nsamples = 8\nvalue = [3, 1, 0, 0, 3, 1]\nclass = regcar", fillcolor="#ffffff"] ;
7 -> 13 ;
14 [label="age <= 22.5\ngini = 0.627\nsamples = 32\nvalue = [18, 1, 4, 0, 4, 5]\nclass = regcar", fillcolor="#f2c2a0"] ;
6 -> 14 ;
15 [label="gini = 0.0\nsamples = 4\nvalue = [4, 0, 0, 0, 0, 0]\nclass = regcar", fillcolor="#e58139"] ;
14 -> 15 ;
16 [label="age <= 23.5\ngini = 0.676\nsamples = 28\nvalue = [14, 1, 4, 0, 4, 5]\nclass = regcar", fillcolor="#f5ceb2"] ;
14 -> 16 ;
17 [label="gini = 0.5\nsamples = 2\nvalue = [0, 0, 1, 0, 1, 0]\nclass = sportuv", fillcolor="#ffffff"] ;
16 -> 17 ;
18 [label="age <= 24.5\ngini = 0.645\nsamples = 26\nvalue = [14, 1, 3, 0, 3, 5]\nclass = regcar", fillcolor="#f4c9aa"] ;
16 -> 18 ;
19 [label="gini = 0.719\nsamples = 8\nvalue = [3, 0, 2, 0, 1, 2]\nclass = regcar", fillcolor="#fbeade"] ;
18 -> 19 ;
20 [label="age <= 25.5\ngini = 0.58\nsamples = 18\nvalue = [11, 1, 1, 0, 2, 3]\nclass = regcar", fillcolor="#f1bc95"] ;
18 -> 20 ;
21 [label="gini = 0.0\nsamples = 5\nvalue = [5, 0, 0, 0, 0, 0]\nclass = regcar", fillcolor="#e58139"] ;
20 -> 21 ;
22 [label="age <= 26.5\ngini = 0.698\nsamples = 13\nvalue = [6, 1, 1, 0, 2, 3]\nclass = regcar", fillcolor="#f7d9c4"] ;
20 -> 22 ;
23 [label="gini = 0.75\nsamples = 4\nvalue = [1, 1, 1, 0, 0, 1]\nclass = regcar", fillcolor="#ffffff"] ;
22 -> 23 ;
24 [label="age <= 27.5\ngini = 0.593\nsamples = 9\nvalue = [5, 0, 0, 0, 2, 2]\nclass = regcar", fillcolor="#f4c9aa"] ;
22 -> 24 ;
25 [label="gini = 0.5\nsamples = 2\nvalue = [1, 0, 0, 0, 1, 0]\nclass = regcar", fillcolor="#ffffff"] ;
24 -> 25 ;
26 [label="age <= 28.5\ngini = 0.571\nsamples = 7\nvalue = [4, 0, 0, 0, 1, 2]\nclass = regcar", fillcolor="#f5cdb0"] ;
24 -> 26 ;
27 [label="gini = 0.375\nsamples = 4\nvalue = [3, 0, 0, 0, 0, 1]\nclass = regcar", fillcolor="#eeab7b"] ;
26 -> 27 ;
28 [label="gini = 0.667\nsamples = 3\nvalue = [1, 0, 0, 0, 1, 1]\nclass = regcar", fillcolor="#ffffff"] ;
26 -> 28 ;
29 [label="age <= 30.5\ngini = 0.72\nsamples = 15\nvalue = [5, 2, 5, 0, 0, 3]\nclass = regcar", fillcolor="#ffffff"] ;
5 -> 29 ;
30 [label="gini = 0.0\nsamples = 1\nvalue = [0, 1, 0, 0, 0, 0]\nclass = sportcar", fillcolor="#9de539"] ;
29 -> 30 ;
31 [label="age <= 32.5\ngini = 0.694\nsamples = 14\nvalue = [5, 1, 5, 0, 0, 3]\nclass = regcar", fillcolor="#ffffff"] ;
29 -> 31 ;
32 [label="age <= 31.5\ngini = 0.611\nsamples = 6\nvalue = [2, 0, 3, 0, 0, 1]\nclass = sportuv", fillcolor="#cef8e0"] ;
31 -> 32 ;
33 [label="gini = 0.625\nsamples = 4\nvalue = [1, 0, 2, 0, 0, 1]\nclass = sportuv", fillcolor="#bdf6d5"] ;
32 -> 33 ;
34 [label="gini = 0.5\nsamples = 2\nvalue = [1, 0, 1, 0, 0, 0]\nclass = regcar", fillcolor="#ffffff"] ;
32 -> 34 ;
35 [label="age <= 33.5\ngini = 0.719\nsamples = 8\nvalue = [3, 1, 2, 0, 0, 2]\nclass = regcar", fillcolor="#fbeade"] ;
31 -> 35 ;
36 [label="gini = 0.75\nsamples = 4\nvalue = [1, 1, 1, 0, 0, 1]\nclass = regcar", fillcolor="#ffffff"] ;
35 -> 36 ;
37 [label="gini = 0.625\nsamples = 4\nvalue = [2, 0, 1, 0, 0, 1]\nclass = regcar", fillcolor="#f6d5bd"] ;
35 -> 37 ;
38 [label="age <= 41.0\ngini = 0.678\nsamples = 48\nvalue = [23, 7, 2, 0, 12, 4]\nclass = regcar", fillcolor="#f7d8c2"] ;
4 -> 38 ;
39 [label="age <= 39.5\ngini = 0.678\nsamples = 22\nvalue = [9, 3, 1, 0, 8, 1]\nclass = regcar", fillcolor="#fdf6f1"] ;
38 -> 39 ;
40 [label="age <= 37.5\ngini = 0.623\nsamples = 17\nvalue = [9, 1, 1, 0, 5, 1]\nclass = regcar", fillcolor="#f6d5bd"] ;
39 -> 40 ;
41 [label="age <= 36.5\ngini = 0.711\nsamples = 11\nvalue = [4, 1, 1, 0, 4, 1]\nclass = regcar", fillcolor="#ffffff"] ;
40 -> 41 ;
42 [label="age <= 35.5\ngini = 0.612\nsamples = 7\nvalue = [3, 1, 0, 0, 3, 0]\nclass = regcar", fillcolor="#ffffff"] ;
41 -> 42 ;
43 [label="gini = 0.625\nsamples = 4\nvalue = [2, 1, 0, 0, 1, 0]\nclass = regcar", fillcolor="#f6d5bd"] ;
42 -> 43 ;
44 [label="gini = 0.444\nsamples = 3\nvalue = [1, 0, 0, 0, 2, 0]\nclass = truck", fillcolor="#c09cf2"] ;
42 -> 44 ;
45 [label="gini = 0.75\nsamples = 4\nvalue = [1, 0, 1, 0, 1, 1]\nclass = regcar", fillcolor="#ffffff"] ;
41 -> 45 ;
46 [label="age <= 38.5\ngini = 0.278\nsamples = 6\nvalue = [5, 0, 0, 0, 1, 0]\nclass = regcar", fillcolor="#ea9a61"] ;
40 -> 46 ;
47 [label="gini = 0.0\nsamples = 3\nvalue = [3, 0, 0, 0, 0, 0]\nclass = regcar", fillcolor="#e58139"] ;
46 -> 47 ;
48 [label="gini = 0.444\nsamples = 3\nvalue = [2, 0, 0, 0, 1, 0]\nclass = regcar", fillcolor="#f2c09c"] ;
46 -> 48 ;
49 [label="gini = 0.48\nsamples = 5\nvalue = [0, 2, 0, 0, 3, 0]\nclass = truck", fillcolor="#d5bdf6"] ;
39 -> 49 ;
50 [label="age <= 43.5\ngini = 0.648\nsamples = 26\nvalue = [14, 4, 1, 0, 4, 3]\nclass = regcar", fillcolor="#f3c6a5"] ;
38 -> 50 ;
51 [label="age <= 42.5\ngini = 0.678\nsamples = 11\nvalue = [5, 3, 0, 0, 1, 2]\nclass = regcar", fillcolor="#f8e0ce"] ;
50 -> 51 ;
52 [label="gini = 0.694\nsamples = 7\nvalue = [3, 1, 0, 0, 1, 2]\nclass = regcar", fillcolor="#fae6d7"] ;
51 -> 52 ;
53 [label="gini = 0.5\nsamples = 4\nvalue = [2, 2, 0, 0, 0, 0]\nclass = regcar", fillcolor="#ffffff"] ;
51 -> 53 ;
54 [label="age <= 44.5\ngini = 0.587\nsamples = 15\nvalue = [9, 1, 1, 0, 3, 1]\nclass = regcar", fillcolor="#f2c09c"] ;
50 -> 54 ;
55 [label="gini = 0.625\nsamples = 4\nvalue = [2, 0, 0, 0, 1, 1]\nclass = regcar", fillcolor="#f6d5bd"] ;
54 -> 55 ;
56 [label="gini = 0.545\nsamples = 11\nvalue = [7, 1, 1, 0, 2, 0]\nclass = regcar", fillcolor="#f1b991"] ;
54 -> 56 ;
57 [label="age <= 46.5\ngini = 0.76\nsamples = 11\nvalue = [2, 0, 2, 1, 4, 2]\nclass = truck", fillcolor="#e3d3f9"] ;
3 -> 57 ;
58 [label="gini = 0.0\nsamples = 1\nvalue = [0, 0, 1, 0, 0, 0]\nclass = sportuv", fillcolor="#39e581"] ;
57 -> 58 ;
59 [label="age <= 47.5\ngini = 0.74\nsamples = 10\nvalue = [2, 0, 1, 1, 4, 2]\nclass = truck", fillcolor="#e0cef8"] ;
57 -> 59 ;
60 [label="gini = 0.5\nsamples = 2\nvalue = [0, 0, 0, 1, 1, 0]\nclass = stwagon", fillcolor="#ffffff"] ;
59 -> 60 ;
61 [label="gini = 0.719\nsamples = 8\nvalue = [2, 0, 1, 0, 3, 2]\nclass = truck", fillcolor="#eadefb"] ;
59 -> 61 ;
62 [label="age <= 50.5\ngini = 0.472\nsamples = 24\nvalue = [17, 2, 1, 0, 1, 3]\nclass = regcar", fillcolor="#eeab7b"] ;
2 -> 62 ;
63 [label="age <= 49.5\ngini = 0.46\nsamples = 10\nvalue = [7, 2, 1, 0, 0, 0]\nclass = regcar", fillcolor="#efb083"] ;
62 -> 63 ;
64 [label="gini = 0.32\nsamples = 5\nvalue = [4, 0, 1, 0, 0, 0]\nclass = regcar", fillcolor="#eca06a"] ;
63 -> 64 ;
65 [label="gini = 0.48\nsamples = 5\nvalue = [3, 2, 0, 0, 0, 0]\nclass = regcar", fillcolor="#f6d5bd"] ;
63 -> 65 ;
66 [label="age <= 53.5\ngini = 0.439\nsamples = 14\nvalue = [10, 0, 0, 0, 1, 3]\nclass = regcar", fillcolor="#eeaf81"] ;
62 -> 66 ;
67 [label="age <= 52.5\ngini = 0.462\nsamples = 13\nvalue = [9, 0, 0, 0, 1, 3]\nclass = regcar", fillcolor="#efb388"] ;
66 -> 67 ;
68 [label="age <= 51.5\ngini = 0.46\nsamples = 10\nvalue = [7, 0, 0, 0, 1, 2]\nclass = regcar", fillcolor="#efb083"] ;
67 -> 68 ;
69 [label="gini = 0.375\nsamples = 4\nvalue = [3, 0, 0, 0, 0, 1]\nclass = regcar", fillcolor="#eeab7b"] ;
68 -> 69 ;
70 [label="gini = 0.5\nsamples = 6\nvalue = [4, 0, 0, 0, 1, 1]\nclass = regcar", fillcolor="#efb388"] ;
68 -> 70 ;
71 [label="gini = 0.444\nsamples = 3\nvalue = [2, 0, 0, 0, 0, 1]\nclass = regcar", fillcolor="#f2c09c"] ;
67 -> 71 ;
72 [label="gini = 0.0\nsamples = 1\nvalue = [1, 0, 0, 0, 0, 0]\nclass = regcar", fillcolor="#e58139"] ;
66 -> 72 ;
73 [label="age <= 55.5\ngini = 0.731\nsamples = 26\nvalue = [10, 1, 7, 0, 4, 4]\nclass = regcar", fillcolor="#fbebe0"] ;
1 -> 73 ;
74 [label="gini = 0.72\nsamples = 5\nvalue = [1, 0, 1, 0, 1, 2]\nclass = van", fillcolor="#f8cee6"] ;
73 -> 74 ;
75 [label="age <= 59.5\ngini = 0.703\nsamples = 21\nvalue = [9, 1, 6, 0, 3, 2]\nclass = regcar", fillcolor="#fae6d7"] ;
73 -> 75 ;
76 [label="age <= 58.0\ngini = 0.648\nsamples = 16\nvalue = [7, 0, 6, 0, 2, 1]\nclass = regcar", fillcolor="#fcf2eb"] ;
75 -> 76 ;
77 [label="age <= 56.5\ngini = 0.675\nsamples = 13\nvalue = [5, 0, 5, 0, 2, 1]\nclass = regcar", fillcolor="#ffffff"] ;
76 -> 77 ;
78 [label="gini = 0.694\nsamples = 7\nvalue = [3, 0, 2, 0, 1, 1]\nclass = regcar", fillcolor="#fae6d7"] ;
77 -> 78 ;
79 [label="gini = 0.611\nsamples = 6\nvalue = [2, 0, 3, 0, 1, 0]\nclass = sportuv", fillcolor="#cef8e0"] ;
77 -> 79 ;
80 [label="gini = 0.444\nsamples = 3\nvalue = [2, 0, 1, 0, 0, 0]\nclass = regcar", fillcolor="#f2c09c"] ;
76 -> 80 ;
81 [label="gini = 0.72\nsamples = 5\nvalue = [2, 1, 0, 0, 1, 1]\nclass = regcar", fillcolor="#f8e0ce"] ;
75 -> 81 ;
82 [label="age <= 18.5\ngini = 0.523\nsamples = 123\nvalue = [82, 5, 7, 1, 18, 10]\nclass = regcar", fillcolor="#efb286"] ;
0 -> 82 [labeldistance=2.5, labelangle=-45, headlabel="False"] ;
83 [label="gini = 0.0\nsamples = 1\nvalue = [0, 0, 0, 0, 0, 1]\nclass = van", fillcolor="#e5399d"] ;
82 -> 83 ;
84 [label="age <= 27.5\ngini = 0.516\nsamples = 122\nvalue = [82, 5, 7, 1, 18, 9]\nclass = regcar", fillcolor="#efb185"] ;
82 -> 84 ;
85 [label="age <= 22.5\ngini = 0.314\nsamples = 22\nvalue = [18, 0, 0, 0, 2, 2]\nclass = regcar", fillcolor="#ea9a61"] ;
84 -> 85 ;
86 [label="age <= 20.5\ngini = 0.403\nsamples = 12\nvalue = [9, 0, 0, 0, 2, 1]\nclass = regcar", fillcolor="#eda774"] ;
85 -> 86 ;
87 [label="gini = 0.0\nsamples = 4\nvalue = [4, 0, 0, 0, 0, 0]\nclass = regcar", fillcolor="#e58139"] ;
86 -> 87 ;
88 [label="age <= 21.5\ngini = 0.531\nsamples = 8\nvalue = [5, 0, 0, 0, 2, 1]\nclass = regcar", fillcolor="#f2c09c"] ;
86 -> 88 ;
89 [label="gini = 0.444\nsamples = 3\nvalue = [2, 0, 0, 0, 1, 0]\nclass = regcar", fillcolor="#f2c09c"] ;
88 -> 89 ;
90 [label="gini = 0.56\nsamples = 5\nvalue = [3, 0, 0, 0, 1, 1]\nclass = regcar", fillcolor="#f2c09c"] ;
88 -> 90 ;
91 [label="age <= 25.5\ngini = 0.18\nsamples = 10\nvalue = [9, 0, 0, 0, 0, 1]\nclass = regcar", fillcolor="#e88f4f"] ;
85 -> 91 ;
92 [label="gini = 0.0\nsamples = 3\nvalue = [3, 0, 0, 0, 0, 0]\nclass = regcar", fillcolor="#e58139"] ;
91 -> 92 ;
93 [label="age <= 26.5\ngini = 0.245\nsamples = 7\nvalue = [6, 0, 0, 0, 0, 1]\nclass = regcar", fillcolor="#e9965a"] ;
91 -> 93 ;
94 [label="gini = 0.375\nsamples = 4\nvalue = [3, 0, 0, 0, 0, 1]\nclass = regcar", fillcolor="#eeab7b"] ;
93 -> 94 ;
95 [label="gini = 0.0\nsamples = 3\nvalue = [3, 0, 0, 0, 0, 0]\nclass = regcar", fillcolor="#e58139"] ;
93 -> 95 ;
96 [label="age <= 38.5\ngini = 0.552\nsamples = 100\nvalue = [64, 5, 7, 1, 16, 7]\nclass = regcar", fillcolor="#f0b78e"] ;
84 -> 96 ;
97 [label="age <= 28.5\ngini = 0.663\nsamples = 33\nvalue = [17, 3, 2, 0, 7, 4]\nclass = regcar", fillcolor="#f5cfb3"] ;
96 -> 97 ;
98 [label="gini = 0.5\nsamples = 2\nvalue = [1, 0, 1, 0, 0, 0]\nclass = regcar", fillcolor="#ffffff"] ;
97 -> 98 ;
99 [label="age <= 33.0\ngini = 0.656\nsamples = 31\nvalue = [16, 3, 1, 0, 7, 4]\nclass = regcar", fillcolor="#f5d0b5"] ;
97 -> 99 ;
100 [label="age <= 29.5\ngini = 0.519\nsamples = 9\nvalue = [6, 1, 0, 0, 1, 1]\nclass = regcar", fillcolor="#efb083"] ;
99 -> 100 ;
101 [label="gini = 0.625\nsamples = 4\nvalue = [2, 1, 0, 0, 1, 0]\nclass = regcar", fillcolor="#f6d5bd"] ;
100 -> 101 ;
102 [label="age <= 31.5\ngini = 0.32\nsamples = 5\nvalue = [4, 0, 0, 0, 0, 1]\nclass = regcar", fillcolor="#eca06a"] ;
100 -> 102 ;
103 [label="age <= 30.5\ngini = 0.444\nsamples = 3\nvalue = [2, 0, 0, 0, 0, 1]\nclass = regcar", fillcolor="#f2c09c"] ;
102 -> 103 ;
104 [label="gini = 0.0\nsamples = 1\nvalue = [1, 0, 0, 0, 0, 0]\nclass = regcar", fillcolor="#e58139"] ;
103 -> 104 ;
105 [label="gini = 0.5\nsamples = 2\nvalue = [1, 0, 0, 0, 0, 1]\nclass = regcar", fillcolor="#ffffff"] ;
103 -> 105 ;
106 [label="gini = 0.0\nsamples = 2\nvalue = [2, 0, 0, 0, 0, 0]\nclass = regcar", fillcolor="#e58139"] ;
102 -> 106 ;
107 [label="age <= 34.5\ngini = 0.69\nsamples = 22\nvalue = [10, 2, 1, 0, 6, 3]\nclass = regcar", fillcolor="#f8e0ce"] ;
99 -> 107 ;
108 [label="gini = 0.444\nsamples = 3\nvalue = [1, 0, 0, 0, 2, 0]\nclass = truck", fillcolor="#c09cf2"] ;
107 -> 108 ;
109 [label="age <= 37.5\ngini = 0.693\nsamples = 19\nvalue = [9, 2, 1, 0, 4, 3]\nclass = regcar", fillcolor="#f6d5bd"] ;
107 -> 109 ;
110 [label="age <= 36.5\ngini = 0.653\nsamples = 12\nvalue = [6, 1, 0, 0, 3, 2]\nclass = regcar", fillcolor="#f6d5bd"] ;
109 -> 110 ;
111 [label="age <= 35.5\ngini = 0.691\nsamples = 9\nvalue = [4, 1, 0, 0, 2, 2]\nclass = regcar", fillcolor="#f8dbc6"] ;
110 -> 111 ;
112 [label="gini = 0.625\nsamples = 4\nvalue = [2, 0, 0, 0, 1, 1]\nclass = regcar", fillcolor="#f6d5bd"] ;
111 -> 112 ;
113 [label="gini = 0.72\nsamples = 5\nvalue = [2, 1, 0, 0, 1, 1]\nclass = regcar", fillcolor="#f8e0ce"] ;
111 -> 113 ;
114 [label="gini = 0.444\nsamples = 3\nvalue = [2, 0, 0, 0, 1, 0]\nclass = regcar", fillcolor="#f2c09c"] ;
110 -> 114 ;
115 [label="gini = 0.735\nsamples = 7\nvalue = [3, 1, 1, 0, 1, 1]\nclass = regcar", fillcolor="#f6d5bd"] ;
109 -> 115 ;
116 [label="age <= 42.5\ngini = 0.481\nsamples = 67\nvalue = [47, 2, 5, 1, 9, 3]\nclass = regcar", fillcolor="#eeac7d"] ;
96 -> 116 ;
117 [label="age <= 41.5\ngini = 0.439\nsamples = 14\nvalue = [10, 0, 3, 1, 0, 0]\nclass = regcar", fillcolor="#eeaf81"] ;
116 -> 117 ;
118 [label="age <= 40.5\ngini = 0.278\nsamples = 12\nvalue = [10, 0, 2, 0, 0, 0]\nclass = regcar", fillcolor="#ea9a61"] ;
117 -> 118 ;
119 [label="age <= 39.5\ngini = 0.298\nsamples = 11\nvalue = [9, 0, 2, 0, 0, 0]\nclass = regcar", fillcolor="#eb9d65"] ;
118 -> 119 ;
120 [label="gini = 0.245\nsamples = 7\nvalue = [6, 0, 1, 0, 0, 0]\nclass = regcar", fillcolor="#e9965a"] ;
119 -> 120 ;
121 [label="gini = 0.375\nsamples = 4\nvalue = [3, 0, 1, 0, 0, 0]\nclass = regcar", fillcolor="#eeab7b"] ;
119 -> 121 ;
122 [label="gini = 0.0\nsamples = 1\nvalue = [1, 0, 0, 0, 0, 0]\nclass = regcar", fillcolor="#e58139"] ;
118 -> 122 ;
123 [label="gini = 0.5\nsamples = 2\nvalue = [0, 0, 1, 1, 0, 0]\nclass = sportuv", fillcolor="#ffffff"] ;
117 -> 123 ;
124 [label="age <= 43.5\ngini = 0.478\nsamples = 53\nvalue = [37, 2, 2, 0, 9, 3]\nclass = regcar", fillcolor="#eeaf81"] ;
116 -> 124 ;
125 [label="gini = 0.75\nsamples = 4\nvalue = [1, 1, 0, 0, 1, 1]\nclass = regcar", fillcolor="#ffffff"] ;
124 -> 125 ;
126 [label="age <= 47.5\ngini = 0.43\nsamples = 49\nvalue = [36, 1, 2, 0, 8, 2]\nclass = regcar", fillcolor="#eda978"] ;
124 -> 126 ;
127 [label="age <= 45.5\ngini = 0.153\nsamples = 12\nvalue = [11, 0, 0, 0, 0, 1]\nclass = regcar", fillcolor="#e78c4b"] ;
126 -> 127 ;
128 [label="gini = 0.0\nsamples = 5\nvalue = [5, 0, 0, 0, 0, 0]\nclass = regcar", fillcolor="#e58139"] ;
127 -> 128 ;
129 [label="age <= 46.5\ngini = 0.245\nsamples = 7\nvalue = [6, 0, 0, 0, 0, 1]\nclass = regcar", fillcolor="#e9965a"] ;
127 -> 129 ;
130 [label="gini = 0.444\nsamples = 3\nvalue = [2, 0, 0, 0, 0, 1]\nclass = regcar", fillcolor="#f2c09c"] ;
129 -> 130 ;
131 [label="gini = 0.0\nsamples = 4\nvalue = [4, 0, 0, 0, 0, 0]\nclass = regcar", fillcolor="#e58139"] ;
129 -> 131 ;
132 [label="age <= 55.5\ngini = 0.492\nsamples = 37\nvalue = [25, 1, 2, 0, 8, 1]\nclass = regcar", fillcolor="#f0b58b"] ;
126 -> 132 ;
133 [label="age <= 54.5\ngini = 0.559\nsamples = 26\nvalue = [16, 1, 2, 0, 6, 1]\nclass = regcar", fillcolor="#f2c09c"] ;
132 -> 133 ;
134 [label="age <= 50.5\ngini = 0.508\nsamples = 21\nvalue = [14, 0, 2, 0, 4, 1]\nclass = regcar", fillcolor="#f0b58b"] ;
133 -> 134 ;
135 [label="age <= 49.5\ngini = 0.403\nsamples = 12\nvalue = [9, 0, 1, 0, 2, 0]\nclass = regcar", fillcolor="#eda774"] ;
134 -> 135 ;
136 [label="age <= 48.5\ngini = 0.444\nsamples = 6\nvalue = [4, 0, 0, 0, 2, 0]\nclass = regcar", fillcolor="#f2c09c"] ;
135 -> 136 ;
137 [label="gini = 0.32\nsamples = 5\nvalue = [4, 0, 0, 0, 1, 0]\nclass = regcar", fillcolor="#eca06a"] ;
136 -> 137 ;
138 [label="gini = 0.0\nsamples = 1\nvalue = [0, 0, 0, 0, 1, 0]\nclass = truck", fillcolor="#8139e5"] ;
136 -> 138 ;
139 [label="gini = 0.278\nsamples = 6\nvalue = [5, 0, 1, 0, 0, 0]\nclass = regcar", fillcolor="#ea9a61"] ;
135 -> 139 ;
140 [label="age <= 53.5\ngini = 0.617\nsamples = 9\nvalue = [5, 0, 1, 0, 2, 1]\nclass = regcar", fillcolor="#f4c9aa"] ;
134 -> 140 ;
141 [label="age <= 51.5\ngini = 0.656\nsamples = 8\nvalue = [4, 0, 1, 0, 2, 1]\nclass = regcar", fillcolor="#f6d5bd"] ;
140 -> 141 ;
142 [label="gini = 0.5\nsamples = 2\nvalue = [1, 0, 0, 0, 1, 0]\nclass = regcar", fillcolor="#ffffff"] ;
141 -> 142 ;
143 [label="age <= 52.5\ngini = 0.667\nsamples = 6\nvalue = [3, 0, 1, 0, 1, 1]\nclass = regcar", fillcolor="#f5cdb0"] ;
141 -> 143 ;
144 [label="gini = 0.625\nsamples = 4\nvalue = [2, 0, 1, 0, 0, 1]\nclass = regcar", fillcolor="#f6d5bd"] ;
143 -> 144 ;
145 [label="gini = 0.5\nsamples = 2\nvalue = [1, 0, 0, 0, 1, 0]\nclass = regcar", fillcolor="#ffffff"] ;
143 -> 145 ;
146 [label="gini = 0.0\nsamples = 1\nvalue = [1, 0, 0, 0, 0, 0]\nclass = regcar", fillcolor="#e58139"] ;
140 -> 146 ;
147 [label="gini = 0.64\nsamples = 5\nvalue = [2, 1, 0, 0, 2, 0]\nclass = regcar", fillcolor="#ffffff"] ;
133 -> 147 ;
148 [label="age <= 58.5\ngini = 0.298\nsamples = 11\nvalue = [9, 0, 0, 0, 2, 0]\nclass = regcar", fillcolor="#eb9d65"] ;
132 -> 148 ;
149 [label="gini = 0.0\nsamples = 5\nvalue = [5, 0, 0, 0, 0, 0]\nclass = regcar", fillcolor="#e58139"] ;
148 -> 149 ;
150 [label="age <= 59.5\ngini = 0.444\nsamples = 6\nvalue = [4, 0, 0, 0, 2, 0]\nclass = regcar", fillcolor="#f2c09c"] ;
148 -> 150 ;
151 [label="gini = 0.5\nsamples = 2\nvalue = [1, 0, 0, 0, 1, 0]\nclass = regcar", fillcolor="#ffffff"] ;
150 -> 151 ;
152 [label="gini = 0.375\nsamples = 4\nvalue = [3, 0, 0, 0, 1, 0]\nclass = regcar", fillcolor="#eeab7b"] ;
150 -> 152 ;
}